%YAML:1.0
---
opencv_ml_ann_mlp:
   format: 3
   layer_sizes: [ 10, 15, 12 ]
   activation_function: SIGMOID_SYM
   f_param1: 2.
   f_param2: 1.
   min_val: -9.4999999999999996e-01
   max_val: 9.4999999999999996e-01
   min_val1: -9.7999999999999998e-01
   max_val1: 9.7999999999999998e-01
   training_params:
      train_method: BACKPROP
      dw_scale: 1.0000000000000001e-01
      moment_scale: 1.0000000000000001e-01
      term_criteria:
         epsilon: 9.9999999999999995e-07
         iterations: 500
   input_scale:
      - 1.7257827565720412e+01
      - -1.0046029963470563e+01
      - 6.8877829503517973e-01
      - -3.0252390226404997e+00
      - 7.0892215949371284e-01
      - -3.0953534011450703e+00
      - 3.4836343668948286e+00
      - -5.2356590847124869e+00
      - 3.3609956969067785e+00
      - -4.9002155520142230e+00
      - 4.3820386844136641e+00
      - -6.6701513240879979e+00
      - 3.9375045523984538e+00
      - -5.8514552793836483e+00
      - 1.3353763184017044e+01
      - -1.3438625593651215e+01
      - 1.1262734000441801e+01
      - -1.1352967007034890e+01
      - 5.9076000333253678e+00
      - -1.0631000500225662e+01
   output_scale:
      - 5.2631578947368418e-01
      - 4.9999999999999994e-01
      - 5.2631578947368418e-01
      - 4.9999999999999994e-01
      - 5.2631578947368418e-01
      - 4.9999999999999994e-01
      - 5.2631578947368418e-01
      - 4.9999999999999994e-01
      - 5.2631578947368418e-01
      - 4.9999999999999994e-01
      - 5.2631578947368418e-01
      - 4.9999999999999994e-01
      - 5.2631578947368418e-01
      - 4.9999999999999994e-01
      - 5.2631578947368418e-01
      - 4.9999999999999994e-01
      - 5.2631578947368418e-01
      - 4.9999999999999994e-01
      - 5.2631578947368418e-01
      - 4.9999999999999994e-01
      - 5.2631578947368418e-01
      - 4.9999999999999994e-01
      - 5.2631578947368418e-01
      - 4.9999999999999994e-01
   inv_output_scale:
      - 1.8999999999999999e+00
      - -9.4999999999999996e-01
      - 1.8999999999999999e+00
      - -9.4999999999999996e-01
      - 1.8999999999999999e+00
      - -9.4999999999999996e-01
      - 1.8999999999999999e+00
      - -9.4999999999999996e-01
      - 1.8999999999999999e+00
      - -9.4999999999999996e-01
      - 1.8999999999999999e+00
      - -9.4999999999999996e-01
      - 1.8999999999999999e+00
      - -9.4999999999999996e-01
      - 1.8999999999999999e+00
      - -9.4999999999999996e-01
      - 1.8999999999999999e+00
      - -9.4999999999999996e-01
      - 1.8999999999999999e+00
      - -9.4999999999999996e-01
      - 1.8999999999999999e+00
      - -9.4999999999999996e-01
      - 1.8999999999999999e+00
      - -9.4999999999999996e-01
   weights:
      -
         - 1.2761267425951431e-01
         - -6.4183039169999689e-01
         - 1.2597244336054858e+00
         - -3.2880962365758903e+00
         - 1.6780051096478958e+00
         - -2.3007567270307892e+00
         - 2.1395895399240579e+00
         - -3.4135172948745938e+00
         - 1.7169252468830865e+00
         - 3.0758871839782489e+00
         - -1.5146796780160527e+00
         - 2.7584140627548264e+00
         - -1.4372850305925097e-01
         - -7.7144337015447562e-01
         - 1.2339885440760232e+00
         - -1.4291081781462653e-01
         - 1.7955843911761065e+00
         - 1.1592138704130170e+00
         - 2.7388612001183734e+00
         - -4.3459683215561973e-01
         - 1.0671095225220001e-02
         - 1.5660374469540537e+00
         - 4.1567865434882805e+00
         - -5.0822116504798407e+00
         - -3.1730917581156831e-01
         - -5.8393054993150584e-01
         - 2.9453760357430983e+00
         - 4.0057570540409043e-01
         - 1.3648842558230583e+00
         - 1.1339862410744208e+00
         - -1.0192063616685835e-03
         - 5.3257275186574171e-01
         - 2.7436955860717811e+00
         - -2.2946555423792017e-01
         - -1.3140923318082214e+00
         - -6.8993064487859512e-01
         - 5.1517170515752320e-01
         - 4.4552088479606233e+00
         - -2.1773467153527530e+00
         - 1.9929715119933655e+00
         - 1.2860393212446464e+00
         - -7.5157612784645522e-01
         - -1.9783121987263919e-01
         - 1.4338043736603243e-01
         - -2.4300300340975305e+00
         - 1.2793418684976710e-01
         - 8.7007315603292190e-01
         - 6.4320850208692271e-02
         - 9.8295664681212547e-01
         - -6.1839485468650861e-03
         - 2.7713760195746127e+00
         - 1.7338800334900626e+00
         - 3.3229241658935509e+00
         - -2.6995695367467332e+00
         - 8.8440782889288549e-01
         - 9.7059048001113746e-01
         - -3.6004828402358231e+00
         - 1.5295128862256724e-01
         - -2.9117676954317560e+00
         - 6.0628113816190343e-01
         - 5.9497451415033653e-02
         - -1.5701429835388343e+00
         - 4.2191221413661611e-01
         - 3.5783833313712319e+00
         - -4.1648335013092141e-01
         - 3.6572510639967666e+00
         - 3.5176754871372995e+00
         - 3.9003130455709356e+00
         - 4.1878501793333918e-02
         - 1.7345677134470412e+00
         - 4.8835508606512340e-02
         - -3.3955999927884086e+00
         - 5.3869358629770665e-02
         - 1.4269517133606507e-01
         - 1.1257761978856375e+00
         - -5.5803726120352982e-02
         - 6.2171378415406253e-01
         - 1.7866346402128184e+00
         - 4.9793769179973413e-01
         - 1.2843812344285928e+00
         - 3.1342952473486507e+00
         - 6.7686138652247463e-01
         - 2.4099847212707144e+00
         - -4.0581339887461203e+00
         - 1.4090533734891402e+00
         - 1.3212970252937111e+00
         - 7.9665071678796529e-01
         - 1.5113140795970534e-01
         - -2.8594202180551163e+00
         - 1.4725443910702640e+00
         - 2.1359380992257276e-01
         - -4.1858785025755516e+00
         - -9.6196675320351765e-01
         - 4.9019342436549991e+00
         - 1.7539507804930224e-01
         - 5.2135751681860310e+00
         - 1.9495634674722821e-02
         - 1.5615613870690837e+00
         - -6.2499467052772584e-01
         - 2.2511589030097992e+00
         - -1.2818256990934187e+00
         - 1.0003052015437957e+00
         - 1.6513542120778471e-01
         - 6.5984545138402045e-02
         - 1.4392935484153410e-01
         - -3.1739757680192611e-02
         - -2.0137105143375877e+00
         - -6.0181765000847293e-02
         - 3.2374031201751685e+00
         - -1.9904328714884862e+00
         - 8.2675380859276115e-01
         - -1.2684253996115252e-02
         - 2.0310872376123235e+00
         - 1.0537361678511818e+00
         - 9.7402827641272705e-01
         - 3.0062861533301759e+00
         - 4.5539994154478514e-01
         - 2.6421303875297836e-01
         - 1.6238825912748527e+00
         - -3.4489779781298195e+00
         - -2.4246350440639962e-02
         - 1.5637533580963860e+00
         - 4.2417592290110138e+00
         - -2.8688422751449041e+00
         - -2.4713672072591675e+00
         - -1.9381010522696944e+00
         - 5.5655758806182813e+00
         - 2.4179939747627932e+00
         - 5.2781309056931902e-01
         - 2.7783249236847923e-01
         - 2.6831716472582423e+00
         - -1.5044772572661123e+00
         - -3.1070285389421803e-01
         - 2.4543811269655288e-01
         - 9.6740040499540925e-01
         - -1.9631563198268054e-01
         - -1.2107454218089118e+00
         - -5.9425972366138939e+00
         - -3.2870857323078897e+00
         - 3.3371754699567373e+00
         - -8.9607809125117746e-02
         - -3.0055305132974817e+00
         - -1.0370327719895567e+00
         - -1.4302378351681850e+00
         - 2.3887849481548233e+00
         - 6.9240708146181822e+00
         - -3.9799040723176855e+00
         - -5.0532735382003469e-01
         - 2.8438837776966180e-01
         - 1.8188052264875942e+00
         - -3.5693496172022536e+00
         - 1.5529247154049486e-01
         - -5.4688447589483351e+00
         - 8.0234453528800775e-01
         - 2.4621773889925995e+00
         - -3.4163649282206330e+00
         - 1.9065290781816144e+00
         - 5.0395816175912413e+00
         - 6.6337346820277465e-01
         - 3.2363941855090563e+00
         - -2.4132196422031327e+00
         - -5.3591564032747274e-01
         - 2.9540567660380916e+00
         - 1.0405906822716653e+00
         - -1.9098032752114034e+00
      -
         - 1.8477355784470393e+00
         - 1.9963800063244841e+00
         - 2.2574454533209272e+00
         - 1.4940791457559894e+00
         - 1.8290216929097334e+00
         - 1.6533577360954987e+00
         - 2.3336703594613488e+00
         - 1.2600322340280885e+00
         - 1.5058103100515319e+00
         - 2.9691737915843777e+00
         - 1.5113440101756197e+00
         - 2.1188831227522731e+00
         - 1.5412609060143760e+00
         - -1.1090571341614366e+00
         - -7.4199474186275594e-01
         - -5.4655445061474806e-01
         - -6.2731198252536635e-01
         - -3.6000997593521894e-01
         - 1.9112406003622506e-01
         - -1.3039501744158735e+00
         - 8.3130109904071769e-01
         - 3.2627627551916336e+00
         - -2.7091049401017662e+00
         - -1.3701313524446307e-01
         - 1.3107911958148992e+00
         - 1.0141308367974882e+00
         - 1.2211487561836369e-01
         - 3.9711087510770353e+00
         - 1.7586401024108649e+00
         - 9.7904195216463130e-01
         - 9.4028848901592610e-01
         - -7.7363932396931415e-02
         - -1.0922901680437593e+00
         - -1.1981295908782328e+00
         - -8.2675102551273127e-01
         - -1.6488036244709605e+00
         - -1.9444772802487043e+00
         - -2.1831224796229280e+00
         - 1.6747868491386217e+00
         - -1.9828176427041206e+00
         - 1.5564114761451548e+00
         - 1.5459801476570831e+00
         - -2.9618907312600187e+00
         - -1.8839238432588667e-01
         - 4.5882787730685809e-01
         - 1.6152139264412531e+00
         - 1.3347734173077499e+00
         - -1.5502131529934478e+00
         - 1.5405469391062347e+00
         - 1.1428261441435488e+00
         - -1.0186070914710352e+00
         - -1.2689625929605068e+00
         - 1.6250933616424141e+00
         - 2.5207591093976173e-01
         - 4.4905790304742577e-01
         - -2.3127723635238442e-01
         - -8.5482392922678829e-01
         - -2.2823256298391454e+00
         - 1.9942244732029517e+00
         - -1.2582431769835797e-01
         - -1.4407507765006524e+00
         - -2.2074986771865031e+00
         - 1.5066815792997963e+00
         - 1.3816070493509940e+00
         - 1.0290639255904952e+00
         - 1.8774847551687517e+00
         - 2.0240058037191875e+00
         - 4.8401940746778876e-01
         - -8.8021498612984805e-01
         - -8.4803219319346576e-02
         - -2.2617502797041151e+00
         - 1.5407262376474826e+00
         - 1.1835261417723664e+00
         - -2.2523426185331528e+00
         - 2.0994969126716514e+00
         - -6.6400781717747506e-02
         - -1.2605651461389713e+00
         - 1.3153344741466380e-01
         - 2.5111036803441436e+00
         - -1.0534346816091047e+00
         - 7.1269518973515056e-01
         - 2.4098689726112352e-01
         - -1.8585552211756424e+00
         - -3.3991237124014451e-01
         - -2.2760106178003718e-02
         - -1.1981027001612181e+00
         - 4.0397206137343594e-01
         - -1.9933305437986555e+00
         - 1.1491834883553314e+00
         - -8.3955535603373632e-01
         - 1.1910594528166629e+00
         - 1.0618052231416580e-01
         - 3.4718910305701867e-01
         - 1.9206824521636738e+00
         - -6.2054750187702146e-01
         - -3.1468647230663233e-01
         - -1.2803929773499767e+00
         - 2.0511129064874858e+00
         - -1.4123924738889355e+00
         - 1.1478446873121300e+00
         - -2.4651469073400234e-01
         - 9.1392173527877518e-01
         - -1.8516154604352930e+00
         - 2.1895370382010723e-01
         - -6.9931682959630259e-02
         - 2.3493755990771374e+00
         - -4.6016594349231127e-01
         - -2.9870763571717678e+00
         - -9.6976795488146650e-01
         - 3.8944535548048123e+00
         - -8.8357895996649616e-01
         - -2.1777669952588750e+00
         - 1.3264845905640452e+00
         - -1.4203520167363202e+00
         - -7.2679552921893861e-02
         - -4.9405365269573687e-01
         - 8.6747128852569988e-01
         - 2.6917586476478137e+00
         - -5.0407475859621209e-01
         - -2.5473218913884810e+00
         - -1.5387929413694885e+00
         - 1.8772789790003412e+00
         - -2.6253258156644237e+00
         - 1.0356433168072277e+00
         - 1.7357196910085599e+00
         - -8.9770101518770934e-02
         - 1.9102133678389586e+00
         - 3.6908367593325060e-02
         - 7.0620197620698688e-01
         - -4.5316101568514738e-01
         - 1.5866691087983427e+00
         - -1.2059127358433381e+00
         - -6.6365872331066578e-01
         - -1.0744232433017213e+00
         - -6.0748084534472480e-01
         - 1.5592992953425961e+00
         - -1.8433147186863021e+00
         - -5.3681094546549724e-01
         - 9.7129737854100917e-01
         - 3.4684419912858824e-02
         - -2.1354325590987417e+00
         - 2.4223372545557926e+00
         - 3.4064889665062710e+00
         - 7.4015647483633940e-01
         - -2.0881898274194319e+00
         - -2.6220600125098081e+00
         - -1.7498074290082852e+00
         - -8.2653683950223467e-01
         - -1.9054791778723481e+00
         - -1.0708179057365186e+00
         - -2.8644993940072667e+00
         - -4.0334131022662900e-01
         - -1.7115185414605147e+00
         - -1.9829633535485307e+00
         - -1.5594514554364340e+00
         - -1.1326239195369847e+00
         - -4.3542618271484329e-01
         - 3.2351752371751430e-01
         - -1.3180262601987565e+00
         - -1.1364602789265534e+00
         - -1.0934270435718152e+00
         - 9.3034115897449432e-01
         - -1.4330822046760510e+00
         - 8.3119533811049273e-01
         - 1.1437728838528667e+00
         - -7.5021135725520416e-01
         - -5.8928716535779149e-02
         - 3.6758554213116899e+00
         - 1.8467751110584116e+00
         - 9.1126888788877403e-01
         - 2.5073406660267289e-01
         - -7.2707837107032700e-02
         - -1.6309514979600954e+00
         - 2.4323145052078270e+00
         - -3.7894133544567604e-01
         - 3.4030769218815878e-02
         - -6.0482432438221412e-01
         - -8.7292074068547520e-01
         - 2.0738583300905269e-01
         - -8.8460273875594841e-01
         - -2.1293868347429292e+00
         - -2.9013086261396874e+00
         - -3.1036095383587829e+00
         - -1.6655030724566133e+00
         - -2.5300545477092804e+00
         - -1.2387513145641560e+00
         - -2.2718940087262558e+00
         - -1.1971280617112294e+00
         - -2.4538065668087534e+00
         - -3.8290585473492467e+00
         - -2.7860572389623255e+00
         - -3.0410742263242443e+00
